{"learner":{"attributes":{"scikit_learn":"{\"_estimator_type\": \"classifier\"}"},"feature_names":["patient_age","psa","psad","prostate_volume","f0_max"],"feature_types":["float","float","float","float","float"],"gradient_booster":{"gbtree":{"model":{"gbtree_model_param":{"num_parallel_tree":"1","num_trees":"50"},"iteration_indptr":[0,1,2,3,4,5,6,7,8,9,10,11,12,13,14,15,16,17,18,19,20,21,22,23,24,25,26,27,28,29,30,31,32,33,34,35,36,37,38,39,40,41,42,43,44,45,46,47,48,49,50],"tree_info":[0,0,0,0,0,0,0,0,0,0,0,0,0,0,0,0,0,0,0,0,0,0,0,0,0,0,0,0,0,0,0,0,0,0,0,0,0,0,0,0,0,0,0,0,0,0,0,0,0,0],"trees":[{"base_weights":[-4.855489E-1,-7.700598E-1,9.513083E-1,-9.074737E-1,-9.6902244E-2,4.2659488E-2,2.3495762E0,-1.0096207E0,-6.112987E-1,-2.8090024E-1,1.3323832E0,-2.0227559E-1,1.3323832E0,5.6256706E-1,2.5892558E0],"categories":[],"categories_nodes":[],"categories_segments":[],"categories_sizes":[],"default_left":[1,1,1,1,1,1,1,0,0,0,0,0,0,0,0],"id":0,"left_children":[1,3,5,7,9,11,13,-1,-1,-1,-1,-1,-1,-1,-1],"loss_changes":[6.920444E1,1.2895828E1,3.5641304E1,2.9057693E0,6.9265294E0,5.9775786E0,3.2812424E0,0E0,0E0,0E0,0E0,0E0,0E0,0E0,0E0],"parents":[2147483647,0,0,1,1,2,2,3,3,4,4,5,5,6,6],"right_children":[2,4,6,8,10,12,14,-1,-1,-1,-1,-1,-1,-1,-1],"split_conditions":[1.9184592E-1,1.4855331E-1,2.05E-1,1.95E-1,3.25E-1,2.984255E-1,8.155E0,-1.2115448E-1,-7.335584E-2,-3.370803E-2,1.5988597E-1,-2.427307E-2,1.5988597E-1,6.750804E-2,3.107107E-1],"split_indices":[4,4,2,2,2,4,1,0,0,0,0,0,0,0,0],"split_type":[0,0,0,0,0,0,0,0,0,0,0,0,0,0,0],"sum_hessian":[1.6649417E2,1.3936308E2,2.7131102E1,1.1544817E2,2.3914902E1,1.7069311E1,1.0061791E1,8.405114E1,3.1397034E1,2.1899195E1,2.0157084E0,1.5053602E1,2.0157084E0,1.5857651E0,8.476027E0],"tree_param":{"num_deleted":"0","num_feature":"5","num_nodes":"15","size_leaf_vector":"1"}},{"base_weights":[-4.469345E-1,-8.569007E-1,4.267871E-1,-9.699043E-1,-5.4443824E-1,-1.5136378E-1,1.439084E0,-1.0354953E0,-7.133124E-1,-8.4094137E-1,6.3694976E-2,-7.25814E-1,2.0183057E-1,1.6835697E0,-3.1110674E-1],"categories":[],"categories_nodes":[],"categories_segments":[],"categories_sizes":[],"default_left":[1,1,1,1,1,1,1,1,1,0,0,0,0,0,0],"id":1,"left_children":[1,3,5,-1,9,11,13,-1,-1,-1,-1,-1,-1,-1,-1],"loss_changes":[5.7997E1,3.3503876E0,3.0681381E1,5.974808E-1,5.7250605E0,7.0518827E0,8.660889E0,0E0,0E0,0E0,0E0,0E0,0E0,0E0,0E0],"parents":[2147483647,0,0,1,1,2,2,3,3,4,4,5,5,6,6],"right_children":[2,4,6,-1,10,12,14,-1,-1,-1,-1,-1,-1,-1,-1],"split_conditions":[1.4994118E-1,1.95E-1,2.05E-1,-1.16388515E-1,1.0294725E-1,9.5E-2,7.75E1,-1.24259435E-1,-8.5597485E-2,-1.0091296E-1,7.643397E-3,-8.7097675E-2,2.4219668E-2,2.0202835E-1,-3.7332807E-2],"split_indices":[4,2,2,0,4,2,3,2147483647,2147483647,0,0,0,0,0,0],"split_type":[0,0,0,0,0,0,0,0,0,0,0,0,0,0,0],"sum_hessian":[1.5989304E2,1.0884175E2,5.105129E1,7.838819E1,3.045356E1,3.3034718E1,1.801657E1,6.0012096E1,1.8376091E1,2.0214767E1,1.0238791E1,1.2176061E1,2.0858658E1,1.5841695E1,2.174874E0],"tree_param":{"num_deleted":"2","num_feature":"5","num_nodes":"15","size_leaf_vector":"1"}},{"base_weights":[-4.1362387E-1,-8.177412E-1,3.5946947E-1,-9.319255E-1,-5.139417E-1,-3.305363E-1,9.427533E-1,-1.0033033E0,-6.5683794E-1,-7.998844E-1,3.5840444E-2,-4.729154E-1,6.394691E-1,6.1610657E-1,2.264874E0],"categories":[],"categories_nodes":[],"categories_segments":[],"categories_sizes":[],"default_left":[1,1,1,1,1,1,1,1,1,0,0,0,0,0,0],"id":2,"left_children":[1,3,5,-1,9,11,13,-1,-1,-1,-1,-1,-1,-1,-1],"loss_changes":[4.8674477E1,3.0594254E0,2.198642E1,7.7254486E-1,4.7597103E0,3.8118558E0,1.1320387E1,0E0,0E0,0E0,0E0,0E0,0E0,0E0,0E0],"parents":[2147483647,0,0,1,1,2,2,3,3,4,4,5,5,6,6],"right_children":[2,4,6,-1,10,12,14,-1,-1,-1,-1,-1,-1,-1,-1],"split_conditions":[1.4972816E-1,1.95E-1,1.55E-1,-1.11831054E-1,1.0294725E-1,2.5417608E-1,2.8164253E-1,-1.2039639E-1,-7.882055E-2,-9.598612E-2,4.3008532E-3,-5.6749847E-2,7.673629E-2,7.393279E-2,2.7178487E-1],"split_indices":[4,2,2,0,4,4,4,2147483647,2147483647,0,0,0,0,0,0],"split_type":[0,0,0,0,0,0,0,0,0,0,0,0,0,0,0],"sum_hessian":[1.538571E2,1.01002525E2,5.285457E1,7.190803E1,2.90945E1,2.4410757E1,2.8443813E1,5.4991894E1,1.6916134E1,1.8840572E1,1.0253927E1,2.1733183E1,2.6775737E0,2.398421E1,4.4596047E0],"tree_param":{"num_deleted":"2","num_feature":"5","num_nodes":"15","size_leaf_vector":"1"}},{"base_weights":[-3.8106784E-1,-7.852578E-1,3.0389696E-1,-8.979046E-1,-4.9268666E-1,2.59433E-2,1.4718171E0,-9.777714E-1,-5.92502E-1,-7.601402E-1,1.5592733E-2,-1.1950986E-1,1.6007514E0,6.8601954E-1,1.6840534E0],"categories":[],"categories_nodes":[],"categories_segments":[],"categories_sizes":[],"default_left":[1,1,1,1,1,1,1,0,0,0,0,0,0,1,1],"id":3,"left_children":[1,3,5,7,9,11,-1,-1,-1,-1,-1,-1,-1,-1,-1],"loss_changes":[4.146141E1,2.6529236E0,1.8133488E1,1.0450172E0,3.8623161E0,1.0781688E1,6.363754E-1,0E0,0E0,0E0,0E0,0E0,0E0,0E0,0E0],"parents":[2147483647,0,0,1,1,2,2,3,3,4,4,5,5,6,6],"right_children":[2,4,6,8,10,12,-1,-1,-1,-1,-1,-1,-1,-1,-1],"split_conditions":[1.4855331E-1,1.95E-1,3.5500002E-1,6.95E1,1.0294725E-1,3.0917543E-1,1.7661805E-1,-1.1733256E-1,-7.1100235E-2,-9.121682E-2,1.871128E-3,-1.4341183E-2,1.9209017E-1,8.2322344E-2,2.020864E-1],"split_indices":[4,2,2,0,4,4,1,0,0,0,0,0,0,2147483647,2147483647],"split_type":[0,0,0,0,0,0,0,0,0,0,0,0,0,0,0],"sum_hessian":[1.4789612E2,9.291916E1,5.4976963E1,6.559466E1,2.7324501E1,4.5233936E1,9.743026E0,5.0251617E1,1.5343041E1,1.7579014E1,9.745487E0,4.225525E1,2.9786875E0,2.9719229E0,6.7711024E0],"tree_param":{"num_deleted":"2","num_feature":"5","num_nodes":"15","size_leaf_vector":"1"}},{"base_weights":[-3.5094374E-1,-7.473243E-1,2.6884806E-1,-8.733928E-1,-4.758659E-1,-6.028415E-1,5.7390773E-1,-9.275611E-1,-6.353697E-1,-6.9190335E-1,1.2313491E-1,-8.326238E-2,-7.0553154E-1,3.624432E-1,1.7535985E0],"categories":[],"categories_nodes":[],"categories_segments":[],"categories_sizes":[],"default_left":[1,1,1,1,1,1,1,1,1,0,0,1,1,0,0],"id":4,"left_children":[1,3,5,-1,9,-1,13,-1,-1,-1,-1,-1,-1,-1,-1],"loss_changes":[3.54056E1,2.5845375E0,1.5405478E1,1.670723E-1,3.967256E0,7.506075E-1,9.957421E0,0E0,0E0,0E0,0E0,0E0,0E0,0E0,0E0],"parents":[2147483647,0,0,1,1,2,2,3,3,4,4,5,5,6,6],"right_children":[2,4,6,-1,10,-1,14,-1,-1,-1,-1,-1,-1,-1,-1],"split_conditions":[1.4855331E-1,1.026973E-1,1.05000004E-1,-1.0480714E-1,2.05E-1,-7.234098E-2,2.984255E-1,-1.1130733E-1,-7.624436E-2,-8.30284E-2,1.4776189E-2,-9.991485E-3,-8.4663786E-2,4.3493185E-2,2.1043181E-1],"split_indices":[4,4,2,0,2,3,4,2147483647,2147483647,0,0,2147483647,2147483647,0,0],"split_type":[0,0,0,0,0,0,0,0,0,0,0,0,0,0,0],"sum_hessian":[1.4229872E2,8.666645E1,5.5632275E1,5.7667534E1,2.8998915E1,1.4169017E1,4.1463257E1,4.4616882E1,1.3050651E1,2.1198355E1,7.8005595E0,2.6370726E0,1.1531944E1,3.6269104E1,5.1941533E0],"tree_param":{"num_deleted":"4","num_feature":"5","num_nodes":"15","size_leaf_vector":"1"}},{"base_weights":[-3.2310197E-1,-7.095676E-1,2.358835E-1,-8.3116204E-1,-4.143668E-1,4.696608E-1,-6.4854574E-1,-9.217535E-1,-5.014342E-1,-6.759245E-1,1.8818501E-2,-5.8667654E-1,6.5424186E-1,-7.751459E-1,1.2551172E-1],"categories":[],"categories_nodes":[],"categories_segments":[],"categories_sizes":[],"default_left":[1,1,1,1,1,1,1,0,0,0,0,0,0,0,0],"id":5,"left_children":[1,3,5,7,9,11,13,-1,-1,-1,-1,-1,-1,-1,-1],"loss_changes":[3.0005047E1,2.5957527E0,1.2132991E1,1.2410202E0,2.9461856E0,9.3194065E0,1.3105049E0,0E0,0E0,0E0,0E0,0E0,0E0,0E0,0E0],"parents":[2147483647,0,0,1,1,2,2,3,3,4,4,5,5,6,6],"right_children":[2,4,6,8,10,12,14,-1,-1,-1,-1,-1,-1,-1,-1],"split_conditions":[1.4855331E-1,1.95E-1,8.55E1,6.95E1,1.0294725E-1,9.5E-2,7.35E1,-1.1061042E-1,-6.0172103E-2,-8.111094E-2,2.2582202E-3,-7.0401184E-2,7.850902E-2,-9.30175E-2,1.5061406E-2],"split_indices":[4,2,3,0,4,2,0,0,0,0,0,0,0,0,0],"split_type":[0,0,0,0,0,0,0,0,0,0,0,0,0,0,0],"sum_hessian":[1.37119E2,8.091052E1,5.6208477E1,5.6020058E1,2.4890463E1,4.4828205E1,1.1380275E1,4.253753E1,1.3482529E1,1.5170278E1,9.720185E0,6.3439646E0,3.8484238E1,9.7794075E0,1.600867E0],"tree_param":{"num_deleted":"0","num_feature":"5","num_nodes":"15","size_leaf_vector":"1"}},{"base_weights":[-2.99009E-1,-6.730924E-1,2.0225711E-1,-8.075264E-1,-4.0202057E-1,-1.39025E-2,1.023395E0,-8.688733E-1,-5.5049896E-1,-6.132154E-1,1.0792067E-1,-1.8879643E-1,8.547803E-1,3.9151385E-1,1.2251371E0],"categories":[],"categories_nodes":[],"categories_segments":[],"categories_sizes":[],"default_left":[1,1,1,1,1,1,1,1,1,0,0,0,0,0,0],"id":6,"left_children":[1,3,5,-1,9,11,13,-1,-1,-1,-1,-1,-1,-1,-1],"loss_changes":[2.519054E1,2.472004E0,1.0285736E1,3.149681E-1,3.0207E0,7.271001E0,1.059308E0,0E0,0E0,0E0,0E0,0E0,0E0,0E0,0E0],"parents":[2147483647,0,0,1,1,2,2,3,3,4,4,5,5,6,6],"right_children":[2,4,6,-1,10,12,14,-1,-1,-1,-1,-1,-1,-1,-1],"split_conditions":[1.4855331E-1,1.026973E-1,3.5500002E-1,-9.690317E-2,2.05E-1,2.5419742E-1,1.6025E1,-1.04264796E-1,-6.605987E-2,-7.3585846E-2,1.295048E-2,-2.265557E-2,1.0257363E-1,4.6981663E-2,1.4701645E-1],"split_indices":[4,4,2,0,2,4,1,2147483647,2147483647,0,0,0,0,0,0],"split_type":[0,0,0,0,0,0,0,0,0,0,0,0,0,0,0],"sum_hessian":[1.3261255E2,7.574386E1,5.686869E1,4.9310196E1,2.643366E1,4.579619E1,1.1072503E1,3.7886932E1,1.1423264E1,1.8548983E1,7.8846784E0,3.8772663E1,7.0235267E0,3.3912764E0,7.6812263E0],"tree_param":{"num_deleted":"2","num_feature":"5","num_nodes":"15","size_leaf_vector":"1"}},{"base_weights":[-2.737341E-1,-6.365309E-1,1.8151423E-1,-7.661217E-1,-3.4337693E-1,-5.299221E-1,3.960007E-1,-8.6841065E-1,-4.1409436E-1,-2.7463717E-2,-6.636283E-1,-1.2894927E-2,-6.3969326E-1,5.375107E-1,-5.152564E-1],"categories":[],"categories_nodes":[],"categories_segments":[],"categories_sizes":[],"default_left":[1,1,1,1,1,1,1,0,0,0,0,1,1,0,0],"id":7,"left_children":[1,3,5,7,9,-1,13,-1,-1,-1,-1,-1,-1,-1,-1],"loss_changes":[2.1421455E1,2.472643E0,9.058513E0,1.4092846E0,2.3984625E0,7.783983E-1,6.0962977E0,0E0,0E0,0E0,0E0,0E0,0E0,0E0,0E0],"parents":[2147483647,0,0,1,1,2,2,3,3,4,4,5,5,6,6],"right_children":[2,4,6,8,10,-1,14,-1,-1,-1,-1,-1,-1,-1,-1],"split_conditions":[1.4855331E-1,1.95E-1,1.05000004E-1,6.95E1,4.95E1,-6.359065E-2,8.55E1,-1.04209274E-1,-4.9691323E-2,-3.295646E-3,-7.963539E-2,-1.5473912E-3,-7.676319E-2,6.450128E-2,-6.1830766E-2],"split_indices":[4,2,2,0,3,3,3,0,0,0,0,2147483647,2147483647,0,0],"split_type":[0,0,0,0,0,0,0,0,0,0,0,0,0,0,0],"sum_hessian":[1.2799963E2,7.101117E1,5.698847E1,4.8124157E1,2.288701E1,1.2860489E1,4.412798E1,3.6152424E1,1.1971734E1,1.2068122E1,1.0818889E1,2.4479578E0,1.0412531E1,3.8551434E1,5.576545E0],"tree_param":{"num_deleted":"2","num_feature":"5","num_nodes":"15","size_leaf_vector":"1"}},{"base_weights":[-2.5270793E-1,-7.0317936E-1,7.879249E-2,-7.2157335E-1,1.2081395E-1,-9.937468E-2,8.502769E-1,-7.5818473E-1,-1.440553E-1,-1.8833543E-1,1.0360221E0,6.1432886E-1,1.2221638E0],"categories":[],"categories_nodes":[],"categories_segments":[],"categories_sizes":[],"default_left":[1,1,1,1,0,1,1,0,0,0,0,1,1],"id":8,"left_children":[1,3,5,7,-1,9,-1,-1,-1,-1,-1,-1,-1],"loss_changes":[1.8747187E1,8.929558E-1,1.0119392E1,9.9334717E-1,0E0,6.27611E0,4.6021748E-1,0E0,0E0,0E0,0E0,0E0,0E0],"parents":[2147483647,0,0,1,1,2,2,3,3,5,5,6,6],"right_children":[2,4,6,8,-1,10,-1,-1,-1,-1,-1,-1,-1],"split_conditions":[1.18596785E-1,6.7499995E-1,3.5500002E-1,7.45E1,1.4497674E-2,3.0917543E-1,1.0203323E-1,-9.098217E-2,-1.7286636E-2,-2.2600252E-2,1.24322645E-1,7.3719464E-2,1.4665966E-1],"split_indices":[4,2,2,0,0,4,1,0,0,0,0,2147483647,2147483647],"split_type":[0,0,0,0,0,0,0,0,0,0,0,0,0],"sum_hessian":[1.2416974E2,5.2163822E1,7.200592E1,5.1146378E1,1.0174446E0,5.92044E1,1.28015175E1,4.78031E1,3.3432772E0,5.5676178E1,3.528223E0,9.45476E0,3.3467586E0],"tree_param":{"num_deleted":"2","num_feature":"5","num_nodes":"13","size_leaf_vector":"1"}},{"base_weights":[-2.3023376E-1,-6.678147E-1,7.2023906E-2,-7.703043E-1,-4.1394514E-1,-5.219334E-1,2.5474817E-1,-7.99539E-1,-2.5312614E-1,-1.505283E-1,-7.459926E-1,-6.8087804E-1,-1.5924184E-1,-2.0697442E-1,4.929513E-1],"categories":[],"categories_nodes":[],"categories_segments":[],"categories_sizes":[],"default_left":[1,1,1,1,1,1,1,1,1,0,0,1,1,0,0],"id":9,"left_children":[1,3,5,-1,9,-1,13,-1,-1,-1,-1,-1,-1,-1,-1],"loss_changes":[1.6087843E1,9.7278595E-1,8.015496E0,3.1476212E-1,1.3255672E0,8.955178E-1,6.284729E0,0E0,0E0,0E0,0E0,0E0,0E0,0E0,0E0],"parents":[2147483647,0,0,1,1,2,2,3,3,4,4,5,5,6,6],"right_children":[2,4,6,-1,10,-1,14,-1,-1,-1,-1,-1,-1,-1,-1],"split_conditions":[1.18596785E-1,1.95E-1,1.05000004E-1,-9.2436515E-2,5.3E1,-6.2632E-2,6.35E1,-9.594468E-2,-3.0375136E-2,-1.8063394E-2,-8.951911E-2,-8.170536E-2,-1.910902E-2,-2.483693E-2,5.9154157E-2],"split_indices":[4,2,2,0,3,0,0,2147483647,2147483647,0,0,2147483647,2147483647,0,0],"split_type":[0,0,0,0,0,0,0,0,0,0,0,0,0,0,0],"sum_hessian":[1.2027234E2,4.864261E1,7.162973E1,3.3203697E1,1.5438911E1,1.6415068E1,5.5214664E1,3.0910446E1,2.2932496E0,9.419586E0,6.0193257E0,1.0803353E1,5.6117153E0,1.883562E1,3.6379044E1],"tree_param":{"num_deleted":"4","num_feature":"5","num_nodes":"15","size_leaf_vector":"1"}},{"base_weights":[-2.1147503E-1,-3.703741E-1,5.2120453E-1,-6.3398975E-1,-1.2804586E-1,7.124717E-1,-4.115801E-1,-8.3158237E-1,-4.7832134E-1,-3.369803E-1,2.1727096E-1,8.0496085E-1,-4.2464617E-1,-5.964276E-1,1.8581973E-2],"categories":[],"categories_nodes":[],"categories_segments":[],"categories_sizes":[],"default_left":[1,1,1,1,1,1,1,0,0,0,0,0,0,1,1],"id":10,"left_children":[1,3,5,7,9,11,-1,-1,-1,-1,-1,-1,-1,-1,-1],"loss_changes":[1.3954145E1,6.1612473E0,4.12574E0,1.0340805E0,3.8370795E0,2.2551184E0,3.521257E-1,0E0,0E0,0E0,0E0,0E0,0E0,0E0,0E0],"parents":[2147483647,0,0,1,1,2,2,3,3,4,4,5,5,6,6],"right_children":[2,4,6,8,10,12,-1,-1,-1,-1,-1,-1,-1,-1,-1],"split_conditions":[2.2100854E-1,1.18596785E-1,8.25E1,6.840526E-2,6.85E1,3.8865724E-1,-4.938961E-2,-9.978988E-2,-5.739856E-2,-4.0437635E-2,2.6072513E-2,9.65953E-2,-5.095754E-2,-7.157131E-2,2.2298368E-3],"split_indices":[4,4,3,4,0,4,4,0,0,0,0,0,0,2147483647,2147483647],"split_type":[0,0,0,0,0,0,0,0,0,0,0,0,0,0,0],"sum_hessian":[1.17200096E2,9.67188E1,2.0481293E1,4.555058E1,5.1168224E1,1.7192223E1,3.2890713E0,1.8159014E1,2.7391565E1,3.1894531E1,1.9273691E1,1.6169182E1,1.02304E0,2.0301604E0,1.2589108E0],"tree_param":{"num_deleted":"2","num_feature":"5","num_nodes":"15","size_leaf_vector":"1"}},{"base_weights":[-1.9377762E-1,-5.9965885E-1,5.3911116E-2,-6.83098E-1,-2.4901663E-1,-9.36912E-2,6.6100144E-1,-8.021169E-1,-4.399477E-1,-7.1879226E-1,1.2372574E-1,1.2592107E-1,-4.756631E-1,5.056754E-1,1.3578403E0],"categories":[],"categories_nodes":[],"categories_segments":[],"categories_sizes":[],"default_left":[1,1,1,1,1,1,1,1,1,0,0,0,0,1,1],"id":11,"left_children":[1,3,5,-1,9,11,-1,-1,-1,-1,-1,-1,-1,-1,-1],"loss_changes":[1.1618799E1,1.1102037E0,6.557709E0,6.534786E-1,1.8374047E0,5.0250244E0,8.6137295E-1,0E0,0E0,0E0,0E0,0E0,0E0,0E0,0E0],"parents":[2147483647,0,0,1,1,2,2,3,3,4,4,5,5,6,6],"right_children":[2,4,6,-1,10,12,-1,-1,-1,-1,-1,-1,-1,-1,-1],"split_conditions":[1.18596785E-1,7.05E1,3.5500002E-1,-8.197176E-2,7.090764E-2,6.8985E1,7.932017E-2,-9.625402E-2,-5.2793723E-2,-8.6255066E-2,1.4847089E-2,1.5110528E-2,-5.707957E-2,6.0681045E-2,1.6294083E-1],"split_indices":[4,0,2,2,4,3,3,2147483647,2147483647,0,0,0,0,2147483647,2147483647],"split_type":[0,0,0,0,0,0,0,0,0,0,0,0,0,0,0],"sum_hessian":[1.14251335E2,4.2760227E1,7.149111E1,3.3774967E1,8.985259E0,5.8189198E1,1.3301911E1,2.113219E1,1.2642777E1,3.5644777E0,5.420781E0,3.7372475E1,2.0816725E1,1.228847E1,1.0134408E0],"tree_param":{"num_deleted":"4","num_feature":"5","num_nodes":"15","size_leaf_vector":"1"}},{"base_weights":[-1.7704488E-1,-3.2015967E-1,4.32993E-1,-6.1955965E-1,-1.4392366E-1,6.7099816E-1,-9.173549E-2,-7.057814E-1,-3.0760783E-1,-3.2790452E-1,1.7277397E-1,7.8194946E-1,-4.3425176E-1,-6.95172E-1,3.3694637E-1],"categories":[],"categories_nodes":[],"categories_segments":[],"categories_sizes":[],"default_left":[1,1,1,1,1,1,1,1,1,0,0,0,0,0,0],"id":12,"left_children":[1,3,5,-1,9,11,13,-1,-1,-1,-1,-1,-1,-1,-1],"loss_changes":[9.9572315E0,4.7476635E0,2.783536E0,6.883211E-1,3.4946399E0,2.1930451E0,2.2211237E0,0E0,0E0,0E0,0E0,0E0,0E0,0E0,0E0],"parents":[2147483647,0,0,1,1,2,2,3,3,4,4,5,5,6,6],"right_children":[2,4,6,-1,10,12,14,-1,-1,-1,-1,-1,-1,-1,-1],"split_conditions":[2.2100854E-1,1.026973E-1,6.377E1,-7.434715E-2,2.05E-1,3.752222E-1,6.35E1,-8.469377E-2,-3.691294E-2,-3.9348543E-2,2.0732876E-2,9.383393E-2,-5.211021E-2,-8.342064E-2,4.0433563E-2],"split_indices":[4,4,3,0,2,4,0,2147483647,2147483647,0,0,0,0,0,0],"split_type":[0,0,0,0,0,0,0,0,0,0,0,0,0,0,0],"sum_hessian":[1.1146271E2,9.066735E1,2.0795364E1,3.266264E1,5.8004707E1,1.411456E1,6.680804E0,2.460068E1,8.061959E0,3.6667736E1,2.1336973E1,1.3092749E1,1.0218114E0,2.5166197E0,4.164184E0],"tree_param":{"num_deleted":"2","num_feature":"5","num_nodes":"15","size_leaf_vector":"1"}},{"base_weights":[-1.6149324E-1,-5.3406745E-1,4.3633576E-2,-2.9484248E-1,-6.950058E-1,-4.520803E-1,1.8139479E-1,-6.517202E-1,1.0390495E-1,-7.4743783E-1,-1.72593E-1,-6.239136E-1,-8.150274E-2,7.33034E-2,9.433335E-1],"categories":[],"categories_nodes":[],"categories_segments":[],"categories_sizes":[],"default_left":[1,1,1,1,1,1,1,0,0,1,1,0,0,0,0],"id":13,"left_children":[1,3,5,7,-1,11,13,-1,-1,-1,-1,-1,-1,-1,-1],"loss_changes":[8.41741E0,1.2994871E0,4.982481E0,2.5512152E0,4.906664E-1,9.611032E-1,4.614426E0,0E0,0E0,0E0,0E0,0E0,0E0,0E0,0E0],"parents":[2147483647,0,0,1,1,2,2,3,3,4,4,5,5,6,6],"right_children":[2,4,6,8,-1,12,14,-1,-1,-1,-1,-1,-1,-1,-1],"split_conditions":[1.18596785E-1,5.45E1,1.05000004E-1,6.7E0,-8.340069E-2,6.85E1,2.984255E-1,-7.820643E-2,1.2468593E-2,-8.969254E-2,-2.071116E-2,-7.4869625E-2,-9.780329E-3,8.796408E-3,1.1320002E-1],"split_indices":[4,3,2,1,1,0,4,0,0,2147483647,2147483647,0,0,0,0],"split_type":[0,0,0,0,0,0,0,0,0,0,0,0,0,0,0],"sum_hessian":[1.08834625E2,3.8074986E1,7.0759636E1,1.645205E1,2.1622938E1,1.4891847E1,5.586779E1,8.347049E0,8.105001E0,1.925924E1,2.3636978E0,9.707122E0,5.184725E0,4.9886864E1,5.9809246E0],"tree_param":{"num_deleted":"2","num_feature":"5","num_nodes":"15","size_leaf_vector":"1"}},{"base_weights":[-1.4732765E-1,-5.0185335E-1,3.8803745E-2,-7.454754E-1,-3.362616E-1,-3.1807864E-1,2.1639378E-1,-8.508835E-1,-4.4443372E-1,-5.15749E-1,1.4862534E-1,-4.724645E-1,3.167221E-1,3.3379167E-1,-4.1670424E-1],"categories":[],"categories_nodes":[],"categories_segments":[],"categories_sizes":[],"default_left":[1,1,1,1,1,1,1,1,1,0,0,0,0,0,0],"id":14,"left_children":[1,3,5,-1,9,11,13,-1,-1,-1,-1,-1,-1,-1,-1],"loss_changes":[7.110112E0,1.2445717E0,4.593339E0,7.1697235E-2,2.1556287E0,2.5140147E0,3.7262242E0,0E0,0E0,0E0,0E0,0E0,0E0,0E0,0E0],"parents":[2147483647,0,0,1,1,2,2,3,3,4,4,5,5,6,6],"right_children":[2,4,6,-1,10,12,14,-1,-1,-1,-1,-1,-1,-1,-1],"split_conditions":[1.18596785E-1,6.704338E-2,6.35E1,-8.945705E-2,6.95E1,3.25E-1,9.85E1,-1.0210601E-1,-5.3332046E-2,-6.1889876E-2,1.7835042E-2,-5.669574E-2,3.8006652E-2,4.0055E-2,-5.000451E-2],"split_indices":[4,4,0,2,0,2,3,2147483647,2147483647,0,0,0,0,0,0],"split_type":[0,0,0,0,0,0,0,0,0,0,0,0,0,0,0],"sum_hessian":[1.06452866E2,3.606444E1,7.038842E1,1.3176708E1,2.2887733E1,2.3125223E1,4.72632E1,8.406689E0,4.7700195E0,1.665793E1,6.229802E0,1.8807016E1,4.3182077E0,4.0268764E1,6.994433E0],"tree_param":{"num_deleted":"2","num_feature":"5","num_nodes":"15","size_leaf_vector":"1"}},{"base_weights":[-1.3476416E-1,-2.356403E-1,4.518321E-1,-4.4089985E-1,3.797212E-3,6.024463E-1,-1.8168096E-1,-6.5028197E-1,-2.6147233E-2,1.8503007E-1,-2.1104504E-1,7.3506385E-1,-4.8114857E-1,-6.6653717E-1,5.4288965E-1],"categories":[],"categories_nodes":[],"categories_segments":[],"categories_sizes":[],"default_left":[1,1,1,1,1,1,1,0,0,0,0,0,0,0,0],"id":15,"left_children":[1,3,5,7,9,11,13,-1,-1,-1,-1,-1,-1,-1,-1],"loss_changes":[6.3459067E0,4.4557557E0,1.6184509E0,4.2213326E0,1.7064185E0,2.223103E0,1.6989561E0,0E0,0E0,0E0,0E0,0E0,0E0,0E0,0E0],"parents":[2147483647,0,0,1,1,2,2,3,3,4,4,5,5,6,6],"right_children":[2,4,6,8,10,12,14,-1,-1,-1,-1,-1,-1,-1,-1],"split_conditions":[2.4383211E-1,1.7500001E-1,7.35E1,6.85E1,4.75E1,3.7926224E-1,3.030553E-1,-7.8033835E-2,-3.137668E-3,2.2203607E-2,-2.5325404E-2,8.820766E-2,-5.7737827E-2,-7.998446E-2,6.514676E-2],"split_indices":[4,2,3,0,3,4,4,0,0,0,0,0,0,0,0],"split_type":[0,0,0,0,0,0,0,0,0,0,0,0,0,0,0],"sum_hessian":[1.0444297E2,8.962805E1,1.481492E1,4.7805252E1,4.18228E1,1.2008907E1,2.8060126E0,3.1390377E1,1.6414875E1,2.2761127E1,1.906167E1,1.098601E1,1.0228978E0,1.7290734E0,1.0769392E0],"tree_param":{"num_deleted":"0","num_feature":"5","num_nodes":"15","size_leaf_vector":"1"}},{"base_weights":[-1.22424975E-1,-4.523638E-1,4.046684E-2,-2.152753E-1,-6.239162E-1,-2.7940392E-1,1.9170105E-1,-5.7929754E-1,1.425036E-1,-6.846741E-1,-7.59474E-2,-7.8564845E-2,-7.5625205E-1,2.8891546E-1,-3.6857828E-1],"categories":[],"categories_nodes":[],"categories_segments":[],"categories_sizes":[],"default_left":[1,1,1,1,1,1,1,0,0,1,1,0,0,0,0],"id":16,"left_children":[1,3,5,7,-1,11,13,-1,-1,-1,-1,-1,-1,-1,-1],"loss_changes":[5.579597E0,1.2601056E0,3.449188E0,2.1558948E0,5.9269714E-1,2.137578E0,2.7346883E0,0E0,0E0,0E0,0E0,0E0,0E0,0E0,0E0],"parents":[2147483647,0,0,1,1,2,2,3,3,4,4,5,5,6,6],"right_children":[2,4,6,8,-1,12,14,-1,-1,-1,-1,-1,-1,-1,-1],"split_conditions":[1.18596785E-1,5.45E1,6.35E1,6.7E0,-7.4869946E-2,6.65E1,9.85E1,-6.9515705E-2,1.7100433E-2,-8.216089E-2,-9.113687E-3,-9.427781E-3,-9.075025E-2,3.4669854E-2,-4.4229392E-2],"split_indices":[4,3,0,1,1,3,3,0,0,2147483647,2147483647,0,0,0,0],"split_type":[0,0,0,0,0,0,0,0,0,0,0,0,0,0,0],"sum_hessian":[1.024768E2,3.3283566E1,6.919323E1,1.4919464E1,1.83641E1,2.1940363E1,4.725287E1,7.088311E0,7.8311534E0,1.6306578E1,2.057523E0,1.6257698E1,5.682665E0,4.067897E1,6.5738964E0],"tree_param":{"num_deleted":"2","num_feature":"5","num_nodes":"15","size_leaf_vector":"1"}},{"base_weights":[-1.1259912E-1,-4.786566E-1,1.412411E-2,-6.886828E-1,-2.7551913E-1,-1.7309096E-1,2.591058E-1,-8.050021E-1,-3.850107E-1,3.1251302E-1,-4.7914362E-1,-3.5090846E-1,1.1357435E-1,1.6913596E-1,8.314323E-1],"categories":[],"categories_nodes":[],"categories_segments":[],"categories_sizes":[],"default_left":[1,1,1,1,1,1,1,1,1,0,0,0,0,0,0],"id":17,"left_children":[1,3,5,-1,9,11,13,-1,-1,-1,-1,-1,-1,-1,-1],"loss_changes":[4.7355304E0,9.299073E-1,3.5624619E0,1.2227917E-1,1.9466819E0,2.2864423E0,1.590697E0,0E0,0E0,0E0,0E0,0E0,0E0,0E0,0E0],"parents":[2147483647,0,0,1,1,2,2,3,3,4,4,5,5,6,6],"right_children":[2,4,6,-1,10,12,14,-1,-1,-1,-1,-1,-1,-1,-1],"split_conditions":[1.026973E-1,6.704338E-2,2.05E-1,-8.264194E-2,7.648851E-2,6.85E1,7.7E-1,-9.660025E-2,-4.620128E-2,3.7501562E-2,-5.7497233E-2,-4.2109013E-2,1.36289215E-2,2.0296315E-2,9.977187E-2],"split_indices":[4,4,2,2,4,0,2,2147483647,2147483647,0,0,0,0,0,0],"split_type":[0,0,0,0,0,0,0,0,0,0,0,0,0,0,0],"sum_hessian":[1.00939545E2,2.5243383E1,7.569616E1,1.1236059E1,1.4007323E1,4.3073124E1,3.2623035E1,6.9304924E0,4.305567E0,3.4653225E0,1.0542001E1,2.644517E1,1.6627953E1,2.9310883E1,3.3121545E0],"tree_param":{"num_deleted":"2","num_feature":"5","num_nodes":"15","size_leaf_vector":"1"}},{"base_weights":[-1.01550445E-1,-1.6167475E-1,6.1599827E-1,3.3749107E-2,-3.5101584E-1,8.437573E-1,-4.7015136E-1,-6.237655E-1,1.00106664E-1,-4.2937613E-1,4.1157803E-1,-1.114192E-1,1.0396433E0],"categories":[],"categories_nodes":[],"categories_segments":[],"categories_sizes":[],"default_left":[1,1,1,1,1,1,0,0,0,0,0,0,0],"id":18,"left_children":[1,3,5,7,9,11,-1,-1,-1,-1,-1,-1,-1],"loss_changes":[4.4269114E0,3.4656336E0,2.366509E0,2.106342E0,3.0149498E0,1.414393E0,0E0,0E0,0E0,0E0,0E0,0E0,0E0],"parents":[2147483647,0,0,1,1,2,2,3,3,4,4,5,5],"right_children":[2,4,6,8,10,12,-1,-1,-1,-1,-1,-1,-1],"split_conditions":[2.984255E-1,5.45E1,3.9662552E-1,6.0170747E-2,3.75E-1,1E-1,-5.641816E-2,-7.485186E-2,1.2012799E-2,-5.1525135E-2,4.9389362E-2,-1.3370303E-2,1.2475719E-1],"split_indices":[4,3,4,4,2,2,0,0,0,0,0,0,0],"split_type":[0,0,0,0,0,0,0,0,0,0,0,0,0],"sum_hessian":[9.930384E1,9.234115E1,6.9626966E0,4.5845043E1,4.6496105E1,5.9402323E0,1.0224643E0,3.4325907E0,4.2412453E1,4.2559826E1,3.9362786E0,1.0842812E0,4.8559513E0],"tree_param":{"num_deleted":"0","num_feature":"5","num_nodes":"13","size_leaf_vector":"1"}},{"base_weights":[-9.148914E-2,-2.1398126E-1,2.2723764E-1,-4.6566185E-1,-5.5666165E-3,3.21281E-1,-5.912176E-1,-5.1672775E-1,1.3788693E-1,-1.7007223E-1,3.0937192E-1,-4.8523235E-1,4.229919E-1],"categories":[],"categories_nodes":[],"categories_segments":[],"categories_sizes":[],"default_left":[1,1,1,1,1,1,0,0,0,0,0,0,0],"id":19,"left_children":[1,3,5,7,9,11,-1,-1,-1,-1,-1,-1,-1],"loss_changes":[3.899755E0,3.762118E0,2.33512E0,1.0728998E0,2.1391044E0,2.3089998E0,0E0,0E0,0E0,0E0,0E0,0E0,0E0],"parents":[2147483647,0,0,1,1,2,2,3,3,4,4,5,5],"right_children":[2,4,6,8,10,12,-1,-1,-1,-1,-1,-1,-1],"split_conditions":[7.05E1,1.55E-1,1.235E2,2.5417608E-1,1.9680172E-1,7.505998E-2,-7.0946105E-2,-6.2007327E-2,1.654643E-2,-2.0408668E-2,3.712463E-2,-5.822788E-2,5.075903E-2],"split_indices":[0,2,3,4,4,4,0,0,0,0,0,0,0],"split_type":[0,0,0,0,0,0,0,0,0,0,0,0,0],"sum_hessian":[9.764193E1,7.0771774E1,2.6870155E1,3.1499186E1,3.9272587E1,2.464573E1,2.224425E0,2.9174593E1,2.3245928E0,2.6099634E1,1.3172952E1,2.3377695E0,2.230796E1],"tree_param":{"num_deleted":"0","num_feature":"5","num_nodes":"13","size_leaf_vector":"1"}},{"base_weights":[-8.358621E-2,-6.1498827E-1,-1.5719669E-2,-7.7340794E-1,-2.5178546E-1,-1.3560925E-1,2.7012864E-1,-4.5314196E-1,1.9983752E-1,-3.5498512E-1,2.8827688E-2,3.558945E-1,-5.349453E-1],"categories":[],"categories_nodes":[],"categories_segments":[],"categories_sizes":[],"default_left":[1,1,1,1,1,1,1,1,1,0,0,0,0],"id":20,"left_children":[1,-1,5,-1,-1,9,11,-1,-1,-1,-1,-1,-1],"loss_changes":[3.4947398E0,4.3693924E-1,3.0247397E0,0E0,5.2858603E-1,2.250187E0,1.992418E0,0E0,0E0,0E0,0E0,0E0,0E0],"parents":[2147483647,0,0,1,1,2,2,4,4,5,5,6,6],"right_children":[2,-1,6,-1,-1,10,12,-1,-1,-1,-1,-1,-1],"split_conditions":[6.840526E-2,-7.379859E-2,7.05E1,-9.280895E-2,-3.0214254E-2,1.55E-1,1.235E2,-5.4377034E-2,2.3980502E-2,-4.2598214E-2,3.4593225E-3,4.270734E-2,-6.4193435E-2],"split_indices":[4,2,0,2147483647,2147483647,2,3,2147483647,2147483647,0,0,0,0],"split_type":[0,0,0,0,0,0,0,0,0,0,0,0,0],"sum_hessian":[9.617075E1,9.978254E0,8.6192505E1,6.161401E0,3.8168538E0,6.109417E1,2.5098331E1,2.6375406E0,1.1793133E0,2.5678118E1,3.5416054E1,2.3186201E1,1.9121287E0],"tree_param":{"num_deleted":"4","num_feature":"5","num_nodes":"13","size_leaf_vector":"1"}},{"base_weights":[-7.6385334E-2,-2.7601576E-1,8.218485E-2,-7.275613E-1,-1.9611329E-1,1.6465239E-1,-5.187093E-1,-2.923798E-1,1.5377282E-1,-1.3275135E-1,2.9704654E-1,-6.451687E-1,9.9460855E-2],"categories":[],"categories_nodes":[],"categories_segments":[],"categories_sizes":[],"default_left":[1,1,1,0,1,1,1,0,0,0,0,1,1],"id":21,"left_children":[1,3,5,-1,7,9,-1,-1,-1,-1,-1,-1,-1],"loss_changes":[3.063559E0,1.3998833E0,2.7765572E0,0E0,1.3146311E0,1.9495881E0,5.953332E-1,0E0,0E0,0E0,0E0,0E0,0E0],"parents":[2147483647,0,0,1,1,2,2,4,4,5,5,6,6],"right_children":[2,4,6,-1,8,10,-1,-1,-1,-1,-1,-1,-1],"split_conditions":[1.4903289E-1,5.3678848E-2,9.85E1,-8.730736E-2,7.15E1,6.35E1,-6.2245116E-2,-3.5085574E-2,1.8452737E-2,-1.593016E-2,3.5645586E-2,-7.742024E-2,1.1935302E-2],"split_indices":[4,4,3,0,0,0,0,0,0,0,0,2147483647,2147483647],"split_type":[0,0,0,0,0,0,0,0,0,0,0,0,0],"sum_hessian":[9.506171E1,4.1754555E1,5.330715E1,5.059071E0,3.6695484E1,4.7512466E1,5.794688E0,2.890658E1,7.7889047E0,1.4634822E1,3.2877644E1,4.7743263E0,1.0203618E0],"tree_param":{"num_deleted":"2","num_feature":"5","num_nodes":"13","size_leaf_vector":"1"}},{"base_weights":[-7.008146E-2,-1.1994179E-1,5.0655764E-1,3.9061103E-2,-2.843994E-1,7.3476213E-1,-5.040491E-1,-5.15128E-1,1.0203839E-1,-4.8167923E-1,-4.6164715E-3,-8.872522E-2,9.0284985E-1],"categories":[],"categories_nodes":[],"categories_segments":[],"categories_sizes":[],"default_left":[1,1,1,1,1,1,0,0,0,0,0,0,0],"id":22,"left_children":[1,3,5,7,9,11,-1,-1,-1,-1,-1,-1,-1],"loss_changes":[2.790445E0,2.317304E0,2.157096E0,1.6482397E0,2.3973427E0,1.0112576E0,0E0,0E0,0E0,0E0,0E0,0E0,0E0],"parents":[2147483647,0,0,1,1,2,2,3,3,4,4,5,5],"right_children":[2,4,6,8,10,12,-1,-1,-1,-1,-1,-1,-1],"split_conditions":[2.984255E-1,5.45E1,3.9662552E-1,3.85E0,6.85E1,1E-1,-6.0485892E-2,-6.1815362E-2,1.2244606E-2,-5.7801507E-2,-5.5397657E-4,-1.0647026E-2,1.0834198E-1],"split_indices":[4,3,4,1,0,2,0,0,0,0,0,0,0],"split_type":[0,0,0,0,0,0,0,0,0,0,0,0,0],"sum_hessian":[9.394097E1,8.719359E1,6.747381E0,4.4719666E1,4.2473923E1,5.7270985E0,1.020283E0,3.8306885E0,4.0888977E1,2.4486467E1,1.7987455E1,1.050871E0,4.6762276E0],"tree_param":{"num_deleted":"0","num_feature":"5","num_nodes":"13","size_leaf_vector":"1"}},{"base_weights":[-6.350109E-2,-5.521088E-1,-7.3301294E-3,-7.33676E-1,-1.6274917E-1,-2.2466873E-1,9.328786E-2,-3.8468662E-1,2.6794472E-1,-2.969329E-1,6.715965E-1,3.5508778E-2,5.676979E-1],"categories":[],"categories_nodes":[],"categories_segments":[],"categories_sizes":[],"default_left":[1,1,1,1,1,1,1,1,1,0,0,0,0],"id":23,"left_children":[1,-1,5,-1,-1,9,11,-1,-1,-1,-1,-1,-1],"loss_changes":[2.5713854E0,5.6364655E-1,1.8835996E0,0E0,5.1962185E-1,1.9641794E0,1.5951267E0,0E0,0E0,0E0,0E0,0E0,0E0],"parents":[2147483647,0,0,1,1,2,2,4,4,5,5,6,6],"right_children":[2,-1,6,-1,-1,10,12,-1,-1,-1,-1,-1,-1],"split_conditions":[6.840526E-2,-6.625306E-2,6.35E1,-8.804112E-2,-1.95299E-2,2.815E1,3.015745E-1,-4.6162393E-2,3.2153364E-2,-3.5631947E-2,8.059158E-2,4.261053E-3,6.812374E-2],"split_indices":[4,2,0,2147483647,2147483647,1,4,2147483647,2147483647,0,0,0,0],"split_type":[0,0,0,0,0,0,0,0,0,0,0,0,0],"sum_hessian":[9.283783E1,8.6619625E0,8.417587E1,5.3041863E0,3.357776E0,2.624747E1,5.79284E1,2.286407E0,1.0713689E0,2.4907894E1,1.3395764E0,5.259734E1,5.331059E0],"tree_param":{"num_deleted":"4","num_feature":"5","num_nodes":"13","size_leaf_vector":"1"}},{"base_weights":[-5.6234818E-2,-9.106745E-2,6.2405205E-1,-6.342549E-1,-4.555926E-2,9.767355E-2,1.0336531E0,-7.041938E-2,8.916888E-1,3.0791077E-1,-1.755376E-1],"categories":[],"categories_nodes":[],"categories_segments":[],"categories_sizes":[],"default_left":[1,1,1,0,1,1,0,0,0,1,1],"id":24,"left_children":[1,3,5,-1,7,-1,-1,-1,-1,-1,-1],"loss_changes":[2.2566721E0,2.175736E0,9.014404E-1,0E0,2.0052986E0,2.3434827E-1,0E0,0E0,0E0,0E0,0E0],"parents":[2147483647,0,0,1,1,2,2,4,4,5,5],"right_children":[2,4,6,-1,8,-1,-1,-1,-1,-1,-1],"split_conditions":[7.7E-1,6.0170747E-2,2.2373132E-1,-7.611059E-2,7.95E1,1.1720826E-2,1.24038376E-1,-8.450326E-3,1.0700265E-1,3.694929E-2,-2.1064512E-2],"split_indices":[2,4,4,0,0,1,0,0,0,2147483647,2147483647],"split_type":[0,0,0,0,0,0,0,0,0,0,0],"sum_hessian":[9.183527E1,8.818603E1,3.649243E0,5.8169956E0,8.236903E1,2.1389449E0,1.5102984E0,8.1141655E1,1.2273827E0,1.1370065E0,1.0019383E0],"tree_param":{"num_deleted":"2","num_feature":"5","num_nodes":"11","size_leaf_vector":"1"}},{"base_weights":[-4.8384447E-2,-6.552501E-1,-1.33975735E-2,-4.5848366E-2,5.832467E-1,-2.5446182E-1,5.194837E-2,8.9399084E-2,9.77187E-1],"categories":[],"categories_nodes":[],"categories_segments":[],"categories_sizes":[],"default_left":[1,0,1,1,1,0,0,1,1],"id":25,"left_children":[1,-1,3,5,-1,-1,-1,-1,-1],"loss_changes":[1.9455774E0,0E0,1.7315229E0,1.7358369E0,8.104286E-1,0E0,0E0,0E0,0E0],"parents":[2147483647,0,0,2,2,3,3,4,4],"right_children":[2,-1,4,6,-1,-1,-1,-1,-1],"split_conditions":[5.3678848E-2,-7.863001E-2,7.7E-1,6.35E1,6.998961E-2,-3.0535419E-2,6.233804E-3,1.072789E-2,1.1726244E-1],"split_indices":[4,0,2,0,4,0,0,2147483647,2147483647],"split_type":[0,0,0,0,0,0,0,0,0],"sum_hessian":[9.104623E1,3.996494E0,8.7049736E1,8.343496E1,3.6147747E0,2.611859E1,5.7316372E1,2.1484237E0,1.4663508E0],"tree_param":{"num_deleted":"2","num_feature":"5","num_nodes":"9","size_leaf_vector":"1"}},{"base_weights":[-4.345521E-2,-3.1228945E-1,3.133337E-2,-4.257981E-1,1.02449335E-1,-2.1684034E-1,1.346684E-1,-5.055242E-1,3.151594E-2,3.0578843E-1,-3.198032E-1,5.3876627E-2,-5.554827E-1,8.4195845E-2,5.6850696E-1],"categories":[],"categories_nodes":[],"categories_segments":[],"categories_sizes":[],"default_left":[1,1,1,1,1,1,1,1,1,1,1,0,0,0,0],"id":26,"left_children":[1,3,5,-1,-1,11,13,-1,-1,-1,-1,-1,-1,-1,-1],"loss_changes":[1.8482466E0,9.8481107E-1,1.8871047E0,5.953057E-1,5.358575E-1,2.0175362E0,1.0856544E0,0E0,0E0,0E0,0E0,0E0,0E0,0E0,0E0],"parents":[2147483647,0,0,1,1,2,2,3,3,4,4,5,5,6,6],"right_children":[2,4,6,-1,-1,12,14,-1,-1,-1,-1,-1,-1,-1,-1],"split_conditions":[1.05000004E-1,7.15E1,1.2447001E-1,-5.109577E-2,1.229392E-2,5.45E1,3.0917543E-1,-6.0662907E-2,3.7819128E-3,3.669461E-2,-3.8376383E-2,6.465195E-3,-6.665792E-2,1.0103501E-2,6.822083E-2],"split_indices":[2,0,4,4,3,3,4,2147483647,2147483647,2147483647,2147483647,0,0,0,0],"split_type":[0,0,0,0,0,0,0,0,0,0,0,0,0,0,0],"sum_hessian":[9.0439674E1,1.8992783E1,7.144689E1,1.489072E1,4.102062E0,2.0680742E1,5.0766148E1,1.2590353E1,2.3003674E0,2.9549155E0,1.1471468E0,1.1960334E1,8.7204075E0,4.6545177E1,4.2209697E0],"tree_param":{"num_deleted":"4","num_feature":"5","num_nodes":"15","size_leaf_vector":"1"}},{"base_weights":[-3.9206453E-2,-6.209965E-1,-7.962161E-3,7.407784E-2,-2.1053311E-1,1.5246641E-2,3.3608136E-1,-3.1024867E-1,9.566124E-1],"categories":[],"categories_nodes":[],"categories_segments":[],"categories_sizes":[],"default_left":[1,0,1,1,1,0,0,0,0],"id":27,"left_children":[1,-1,3,5,7,-1,-1,-1,-1],"loss_changes":[1.6408846E0,0E0,1.4604434E0,9.6008295E-1,3.2437086E0,0E0,0E0,0E0,0E0],"parents":[2147483647,0,0,2,2,3,3,4,4],"right_children":[2,-1,4,6,8,-1,-1,-1,-1],"split_conditions":[5.3678848E-2,-7.4519575E-2,6.8985E1,2.4383211E-1,4.05E-1,1.8295968E-3,4.032976E-2,-3.722984E-2,1.1479349E-1],"split_indices":[4,0,3,4,2,0,0,0,0],"split_type":[0,0,0,0,0,0,0,0,0],"sum_hessian":[8.954153E1,3.6016078E0,8.593992E1,6.161894E1,2.432098E1,5.118408E1,1.043486E1,2.3083052E1,1.2379286E0],"tree_param":{"num_deleted":"0","num_feature":"5","num_nodes":"9","size_leaf_vector":"1"}},{"base_weights":[-3.4569234E-2,-5.966012E-1,-5.8289766E-3,-3.4065194E-2,5.027329E-1,-5.6352723E-2,7.626754E-1,3.892548E-2,9.1135526E-1],"categories":[],"categories_nodes":[],"categories_segments":[],"categories_sizes":[],"default_left":[1,0,1,1,1,0,0,1,1],"id":28,"left_children":[1,-1,3,5,-1,-1,-1,-1,-1],"loss_changes":[1.4459507E0,0E0,1.2574747E0,1.5127417E0,8.376429E-1,0E0,0E0,0E0,0E0],"parents":[2147483647,0,0,2,2,3,3,4,4],"right_children":[2,-1,4,6,-1,-1,-1,-1,-1],"split_conditions":[5.3678848E-2,-7.1592145E-2,7.7E-1,7.95E1,6.0327943E-2,-6.7623267E-3,9.152105E-2,4.6710577E-3,1.0936263E-1],"split_indices":[4,0,2,0,4,0,0,2147483647,2147483647],"split_type":[0,0,0,0,0,0,0,0,0],"sum_hessian":[8.873154E1,3.3554492E0,8.537609E1,8.176914E1,3.6069453E0,8.044801E1,1.3211318E0,2.2023852E0,1.4045601E0],"tree_param":{"num_deleted":"2","num_feature":"5","num_nodes":"9","size_leaf_vector":"1"}},{"base_weights":[-2.98954E-2,-2.9910368E-1,2.4540046E-2,-4.436895E-1,1.992357E-1,-1.9427468E-1,1.1377414E-1,-4.9546152E-1,4.8018657E-2,3.8839024E-1,-1.7518456E-1,2.8843863E-2,-4.7371632E-1,1.623488E-1,-3.6126918E-1],"categories":[],"categories_nodes":[],"categories_segments":[],"categories_sizes":[],"default_left":[1,1,1,1,1,1,1,1,1,1,1,0,0,0,0],"id":29,"left_children":[1,3,5,-1,-1,11,13,-1,-1,-1,-1,-1,-1,-1,-1],"loss_changes":[1.3153476E0,1.1755588E0,1.4898167E0,3.294015E-1,3.572326E-1,1.3942919E0,1.30527E0,0E0,0E0,0E0,0E0,0E0,0E0,0E0,0E0],"parents":[2147483647,0,0,1,1,2,2,3,3,4,4,5,5,6,6],"right_children":[2,4,6,-1,-1,12,14,-1,-1,-1,-1,-1,-1,-1,-1],"split_conditions":[9.5E-2,7.15E1,1.2447001E-1,-5.324274E-2,2.3908282E-2,5.45E1,9.65E1,-5.945538E-2,5.7622385E-3,4.6606828E-2,-2.1022147E-2,3.4612634E-3,-5.6845956E-2,1.9481856E-2,-4.33523E-2],"split_indices":[2,0,4,4,4,3,3,2147483647,2147483647,2147483647,2147483647,0,0,0,0],"split_type":[0,0,0,0,0,0,0,0,0,0,0,0,0,0,0],"sum_hessian":[8.825653E1,1.4088378E1,7.416815E1,1.100508E1,3.0832975E0,2.1143686E1,5.3024464E1,9.949828E0,1.0552522E0,2.0236516E0,1.0596459E0,1.2255296E1,8.88839E0,4.8702705E1,4.32176E0],"tree_param":{"num_deleted":"4","num_feature":"5","num_nodes":"15","size_leaf_vector":"1"}},{"base_weights":[-2.8074145E-2,-5.857559E-2,4.1779387E-1,-5.62358E-1,-3.2613833E-2,7.473109E-1,-5.406296E-1,-6.560577E-1,-1.9349834E-1,-1.0333521E-1,1.3634577E-1,9.44272E-1,1.4651884E-1],"categories":[],"categories_nodes":[],"categories_segments":[],"categories_sizes":[],"default_left":[1,1,1,1,1,1,0,1,1,0,0,1,1],"id":30,"left_children":[1,3,5,-1,9,-1,-1,-1,-1,-1,-1,-1,-1],"loss_changes":[1.2297709E0,1.0780745E0,2.2350235E0,1.29185915E-2,9.7936904E-1,4.2184758E-1,0E0,0E0,0E0,0E0,0E0,0E0,0E0],"parents":[2147483647,0,0,1,1,2,2,3,3,4,4,5,5],"right_children":[2,4,6,-1,10,-1,-1,-1,-1,-1,-1,-1,-1],"split_conditions":[3.0917543E-1,5.3678848E-2,3.8865724E-1,-6.748296E-2,7.05E1,8.9677304E-2,-6.487555E-2,-7.8726925E-2,-2.3219801E-2,-1.2400225E-2,1.6361492E-2,1.1331263E-1,1.758226E-2],"split_indices":[4,4,4,2,0,3,0,2147483647,2147483647,0,0,2147483647,2147483647],"split_type":[0,0,0,0,0,0,0,0,0,0,0,0,0],"sum_hessian":[8.762737E1,8.28297E1,4.7976813E0,3.046769E0,7.978292E1,3.7341192E0,1.0635624E0,1.8087025E0,1.2380664E0,5.6515606E1,2.3267319E1,2.3816252E0,1.3524939E0],"tree_param":{"num_deleted":"4","num_feature":"5","num_nodes":"13","size_leaf_vector":"1"}},{"base_weights":[-2.5373835E-2,2.625316E-3,-4.78843E-1,-4.038812E-1,3.669844E-2,-6.624648E-1,-2.0643125E-1,-6.368435E-1,-1.1757877E-2,6.279161E-1,9.236942E-3,1.1308547E-1,-4.005289E-1],"categories":[],"categories_nodes":[],"categories_segments":[],"categories_sizes":[],"default_left":[1,1,1,1,1,1,1,1,1,0,0,1,1],"id":31,"left_children":[1,3,-1,-1,9,-1,-1,-1,-1,-1,-1,-1,-1],"loss_changes":[1.1203666E0,1.1784425E0,1.1991274E-1,5.936309E-1,1.2675644E0,0E0,2.6351738E-1,0E0,0E0,0E0,0E0,0E0,0E0],"parents":[2147483647,0,0,1,1,2,2,3,3,4,4,6,6],"right_children":[2,4,-1,-1,10,-1,-1,-1,-1,-1,-1,-1,-1],"split_conditions":[1.235E2,6.704338E-2,-5.7461157E-2,-4.8465744E-2,7.648851E-2,-7.949577E-2,-2.477175E-2,-7.6421216E-2,-1.4109452E-3,7.534993E-2,1.108433E-3,1.35702565E-2,-4.806347E-2],"split_indices":[3,4,3,2,4,2147483647,2147483647,2147483647,2147483647,0,0,2147483647,2147483647],"split_type":[0,0,0,0,0,0,0,0,0,0,0,0,0],"sum_hessian":[8.7141396E1,8.30102E1,4.1311984E0,5.5803957E0,7.74298E1,1.6124561E0,2.5187426E0,3.1091468E0,2.4712489E0,2.466357E0,7.496345E1,1.109576E0,1.4091665E0],"tree_param":{"num_deleted":"6","num_feature":"5","num_nodes":"13","size_leaf_vector":"1"}},{"base_weights":[-2.2934409E-2,-4.8371937E-2,4.505988E-1,-6.894322E-2,6.9490975E-1,-1.4653408E-3,8.780379E-1,-2.6537685E-2,-4.1166618E-1,2.2595285E-1,-2.4047403E-1],"categories":[],"categories_nodes":[],"categories_segments":[],"categories_sizes":[],"default_left":[1,1,1,1,0,1,1,0,0,1,1],"id":32,"left_children":[1,3,-1,7,-1,-1,-1,-1,-1,-1,-1],"loss_changes":[1.0806764E0,1.3373086E0,8.8597447E-1,1.194862E0,0E0,2.2954614E-1,0E0,0E0,0E0,0E0,0E0],"parents":[2147483647,0,0,1,1,2,2,3,3,5,5],"right_children":[2,4,-1,8,-1,-1,-1,-1,-1,-1,-1],"split_conditions":[7.7E-1,7.95E1,5.4071855E-2,2.1849998E1,8.338917E-2,-1.7584089E-4,1.05364546E-1,-3.184522E-3,-4.9399942E-2,2.7114341E-2,-2.8856883E-2],"split_indices":[2,0,4,1,0,2147483647,2147483647,0,0,2147483647,2147483647],"split_type":[0,0,0,0,0,0,0,0,0,0,0],"sum_hessian":[8.6906586E1,8.332816E1,3.578421E0,8.196687E1,1.3612944E0,2.2234492E0,1.3549718E0,7.3900505E1,8.066368E0,1.1673417E0,1.0561076E0],"tree_param":{"num_deleted":"4","num_feature":"5","num_nodes":"11","size_leaf_vector":"1"}},{"base_weights":[-1.9335818E-2,-2.65716E-1,2.8922293E-2,-4.035265E-1,1.7325759E-1,-1.6343169E-1,1.0479404E-1,-4.5495945E-1,5.083772E-2,3.6153412E-1,-1.8791056E-1,3.8844053E-2,-4.3217695E-1,3.789976E-1,2.7282465E-2],"categories":[],"categories_nodes":[],"categories_segments":[],"categories_sizes":[],"default_left":[1,1,1,1,1,1,1,1,1,1,1,0,0,0,0],"id":33,"left_children":[1,3,5,-1,-1,11,13,-1,-1,-1,-1,-1,-1,-1,-1],"loss_changes":[1.0501802E0,9.446126E-1,1.100318E0,2.8731167E-1,3.5042545E-1,1.1792951E0,1.1338749E0,0E0,0E0,0E0,0E0,0E0,0E0,0E0,0E0],"parents":[2147483647,0,0,1,1,2,2,3,3,4,4,5,5,6,6],"right_children":[2,4,6,-1,-1,12,14,-1,-1,-1,-1,-1,-1,-1,-1],"split_conditions":[9.5E-2,7.15E1,1.2447001E-1,-4.8423182E-2,2.079091E-2,5.45E1,6.95E0,-5.459513E-2,6.1005265E-3,4.3384094E-2,-2.2549266E-2,4.6612862E-3,-5.1861234E-2,4.547971E-2,3.2738957E-3],"split_indices":[2,0,4,4,4,3,1,2147483647,2147483647,2147483647,2147483647,0,0,0,0],"split_type":[0,0,0,0,0,0,0,0,0,0,0,0,0,0,0],"sum_hessian":[8.667949E1,1.345898E1,7.3220505E1,1.0304693E1,3.1542864E0,2.0385098E1,5.283541E1,9.255665E0,1.0490284E0,2.0727506E0,1.0815358E0,1.2118991E1,8.266107E0,1.0786769E1,4.204864E1],"tree_param":{"num_deleted":"4","num_feature":"5","num_nodes":"15","size_leaf_vector":"1"}},{"base_weights":[-1.7700868E-2,-1.7609812E-1,5.3931817E-2,-3.329332E-1,2.2558531E-1,7.563078E-3,3.684307E-1,-4.4484013E-1,4.8861966E-2,6.5842825E-1,-2.0514946E-1,1.13947935E-1,-1.423293E-1,5.9350425E-1,-5.7926744E-1],"categories":[],"categories_nodes":[],"categories_segments":[],"categories_sizes":[],"default_left":[1,1,1,1,1,1,1,1,1,0,0,1,1,0,0],"id":34,"left_children":[1,3,5,-1,9,-1,13,-1,-1,-1,-1,-1,-1,-1,-1],"loss_changes":[1.0000801E0,1.8025929E0,8.850543E-1,8.8159347E-1,1.6818147E0,8.7859786E-1,2.0079672E0,0E0,0E0,0E0,0E0,0E0,0E0,0E0,0E0],"parents":[2147483647,0,0,1,1,2,2,3,3,4,4,5,5,6,6],"right_children":[2,4,6,-1,10,-1,14,-1,-1,-1,-1,-1,-1,-1,-1],"split_conditions":[6.35E1,2.65E-1,2.6891E-1,-3.995198E-2,2.1227594E-1,9.075693E-4,3.9662552E-1,-5.3380813E-2,5.8634356E-3,7.901139E-2,-2.4617935E-2,1.3673752E-2,-1.7079515E-2,7.122051E-2,-6.951209E-2],"split_indices":[0,2,4,4,4,1,4,2147483647,2147483647,0,0,2147483647,2147483647,0,0],"split_type":[0,0,0,0,0,0,0,0,0,0,0,0,0,0,0],"sum_hessian":[8.630355E1,2.6421297E1,5.9882256E1,1.9125147E1,7.296151E0,5.3080307E1,6.8019476E0,1.4662371E1,4.4627757E0,3.3755069E0,3.9206443E0,3.1186064E1,2.1894243E1,5.79856E0,1.0033876E0],"tree_param":{"num_deleted":"4","num_feature":"5","num_nodes":"15","size_leaf_vector":"1"}},{"base_weights":[-1.566531E-2,-5.0787026E-1,5.740822E-3,-6.1577994E-1,-1.3450587E-1,2.9500201E-2,-4.116922E-1,-4.5949742E-2,1.9777156E-1,1.6574483E-2,-5.425405E-1],"categories":[],"categories_nodes":[],"categories_segments":[],"categories_sizes":[],"default_left":[1,1,1,1,1,1,1,0,0,1,1],"id":35,"left_children":[1,-1,5,-1,-1,7,-1,-1,-1,-1,-1],"loss_changes":[9.183474E-1,6.351882E-2,8.4775305E-1,0E0,0E0,1.0330001E0,2.669946E-1,0E0,0E0,0E0,0E0],"parents":[2147483647,0,0,1,1,2,2,5,5,6,6],"right_children":[2,-1,6,-1,-1,8,-1,-1,-1,-1,-1],"split_conditions":[5.3678848E-2,-6.094443E-2,1.235E2,-7.389359E-2,-1.6140703E-2,7.05E1,-4.9403064E-2,-5.513969E-3,2.3732588E-2,1.9889378E-3,-6.510486E-2],"split_indices":[4,2,3,2147483647,2147483647,0,4,0,0,2147483647,2147483647],"split_type":[0,0,0,0,0,0,0,0,0,0,0],"sum_hessian":[8.5884415E1,2.6323204E0,8.32521E1,1.5384148E0,1.0939056E0,7.964803E1,3.6040633E0,5.549291E1,2.4155123E1,1.0478332E0,2.55623E0],"tree_param":{"num_deleted":"4","num_feature":"5","num_nodes":"11","size_leaf_vector":"1"}},{"base_weights":[-1.5024004E-2,-3.7757546E-2,4.0209916E-1,-5.6862693E-2,6.2623656E-1,-4.000465E-2,8.519302E-1,-1.8531196E-2,-3.7052473E-1,1.9359876E-1,-2.7034575E-1],"categories":[],"categories_nodes":[],"categories_segments":[],"categories_sizes":[],"default_left":[1,1,1,1,0,1,0,0,0,1,1],"id":36,"left_children":[1,3,5,7,-1,-1,-1,-1,-1,-1,-1],"loss_changes":[8.367725E-1,1.0895038E0,9.416925E-1,9.7506964E-1,0E0,2.2758284E-1,0E0,0E0,0E0,0E0,0E0],"parents":[2147483647,0,0,1,1,2,2,3,3,5,5],"right_children":[2,4,6,8,-1,-1,-1,-1,-1,-1,-1],"split_conditions":[7.7E-1,7.95E1,2.2373132E-1,2.1849998E1,7.514839E-2,-4.8005576E-3,1.0223162E-1,-2.2237434E-3,-4.4462968E-2,2.3231851E-2,-3.244149E-2],"split_indices":[2,0,4,1,0,0,0,0,0,2147483647,2147483647],"split_type":[0,0,0,0,0,0,0,0,0,0,0],"sum_hessian":[8.564109E1,8.207729E1,3.5637958E0,8.067052E1,1.406776E0,2.2568154E0,1.3069804E0,7.2829384E1,7.841134E0,1.1996686E0,1.0571468E0],"tree_param":{"num_deleted":"2","num_feature":"5","num_nodes":"11","size_leaf_vector":"1"}},{"base_weights":[-1.1822211E-2,-2.340036E-1,3.0347284E-2,-4.2589417E-1,4.0429737E-2,1.8536823E-3,4.304543E-1,-4.8820373E-1,-4.8249163E-2,5.644115E-1,-1.9996588E-1,3.2087393E-2,-4.0398118E-1,8.318686E-1,-5.6188595E-1],"categories":[],"categories_nodes":[],"categories_segments":[],"categories_sizes":[],"default_left":[1,1,1,1,1,1,1,1,1,0,0,1,1,0,0],"id":37,"left_children":[1,3,5,-1,9,-1,13,-1,-1,-1,-1,-1,-1,-1,-1],"loss_changes":[8.1664425E-1,7.491058E-1,8.3720595E-1,1.7094517E-1,9.482863E-1,8.6723644E-1,2.412264E0,0E0,0E0,0E0,0E0,0E0,0E0,0E0,0E0],"parents":[2147483647,0,0,1,1,2,2,3,3,4,4,5,5,6,6],"right_children":[2,4,6,-1,10,-1,14,-1,-1,-1,-1,-1,-1,-1,-1],"split_conditions":[9.5E-2,6.85E1,3.0917543E-1,-5.11073E-2,3.985E0,2.2244187E-4,3.9662552E-1,-5.8584448E-2,-5.7898993E-3,6.772938E-2,-2.3995904E-2,3.850487E-3,-4.847774E-2,9.982423E-2,-6.742632E-2],"split_indices":[2,0,4,4,1,3,4,2147483647,2147483647,0,0,2147483647,2147483647,0,0],"split_type":[0,0,0,0,0,0,0,0,0,0,0,0,0,0,0],"sum_hessian":[8.5403984E1,1.2898042E1,7.250594E1,7.265748E0,5.6322937E0,6.862356E1,3.8823898E0,5.9854236E0,1.2803242E0,1.3474532E0,4.2848406E0,6.47228E1,3.9007564E0,2.8793616E0,1.003028E0],"tree_param":{"num_deleted":"4","num_feature":"5","num_nodes":"15","size_leaf_vector":"1"}},{"base_weights":[-1.0232336E-2,-4.8039508E-1,9.330738E-3,-5.96754E-1,-1.0391245E-1,-5.62746E-1,2.3953304E-2,8.1521206E-2,-1.2936006E-1],"categories":[],"categories_nodes":[],"categories_segments":[],"categories_sizes":[],"default_left":[1,1,1,1,1,1,1,1,1],"id":38,"left_children":[-1,-1,-1,-1,-1,-1,-1,-1,-1],"loss_changes":[7.952194E-1,8.9268684E-2,7.1211576E-1,0E0,0E0,0E0,7.3775196E-1,0E0,0E0],"parents":[2147483647,0,0,1,1,2,2,6,6],"right_children":[-1,-1,-1,-1,-1,-1,-1,-1,-1],"split_conditions":[-1.2278802E-3,-5.7647407E-2,1.1196886E-3,-7.161048E-2,-1.2469494E-2,-6.7529514E-2,2.8743963E-3,9.782544E-3,-1.5523207E-2],"split_indices":[4,2147483647,2147483647,2147483647,2147483647,2147483647,2147483647,2147483647,2147483647],"split_type":[0,0,0,0,0,0,0,0,0],"sum_hessian":[8.496997E1,2.4532948E0,8.251667E1,1.4271352E0,1.0261596E0,1.12235E0,8.1394325E1,5.951515E1,2.1879175E1],"tree_param":{"num_deleted":"8","num_feature":"5","num_nodes":"9","size_leaf_vector":"1"}},{"base_weights":[-9.025519E-3,-4.7992644E-1,1.0550715E-2,-5.964502E-1,-1.0335223E-1,-5.624193E-1,2.5182994E-2,8.277815E-2,-1.2829721E-1],"categories":[],"categories_nodes":[],"categories_segments":[],"categories_sizes":[],"default_left":[1,1,1,1,1,1,1,1,1],"id":39,"left_children":[-1,-1,-1,-1,-1,-1,-1,-1,-1],"loss_changes":[7.970195E-1,8.975834E-2,7.138744E-1,0E0,0E0,0E0,7.384665E-1,0E0,0E0],"parents":[2147483647,0,0,1,1,2,2,6,6],"right_children":[-1,-1,-1,-1,-1,-1,-1,-1,-1],"split_conditions":[-1.0830623E-3,-5.759117E-2,1.2660858E-3,-7.1574025E-2,-1.2402267E-2,-6.749032E-2,3.0219592E-3,9.933378E-3,-1.5395665E-2],"split_indices":[4,2147483647,2147483647,2147483647,2147483647,2147483647,2147483647,2147483647,2147483647],"split_type":[0,0,0,0,0,0,0,0,0],"sum_hessian":[8.490972E1,2.450394E0,8.245932E1,1.4254353E0,1.0249587E0,1.1211337E0,8.133819E1,5.9478775E1,2.1859413E1],"tree_param":{"num_deleted":"8","num_feature":"5","num_nodes":"9","size_leaf_vector":"1"}},{"base_weights":[-7.960308E-3,-4.7951293E-1,1.1627532E-2,-5.9618217E-1,-1.0285805E-1,-5.6213117E-1,2.6268382E-2,8.388752E-2,-1.2735897E-1],"categories":[],"categories_nodes":[],"categories_segments":[],"categories_sizes":[],"default_left":[1,1,1,1,1,1,1,1,1],"id":40,"left_children":[-1,-1,-1,-1,-1,-1,-1,-1,-1],"loss_changes":[7.98607E-1,9.0189815E-2,7.154261E-1,0E0,0E0,0E0,7.390932E-1,0E0,0E0],"parents":[2147483647,0,0,1,1,2,2,6,6],"right_children":[-1,-1,-1,-1,-1,-1,-1,-1,-1],"split_conditions":[-9.5523696E-4,-5.754155E-2,1.3953038E-3,-7.154186E-2,-1.2342966E-2,-6.745574E-2,3.1522056E-3,1.0066502E-2,-1.5283076E-2],"split_indices":[4,2147483647,2147483647,2147483647,2147483647,2147483647,2147483647,2147483647,2147483647],"split_type":[0,0,0,0,0,0,0,0,0],"sum_hessian":[8.48566E1,2.447838E0,8.240876E1,1.4239377E0,1.0239005E0,1.1200619E0,8.12887E1,5.94467E1,2.1841993E1],"tree_param":{"num_deleted":"8","num_feature":"5","num_nodes":"9","size_leaf_vector":"1"}},{"base_weights":[-7.0202537E-3,-4.7914806E-1,1.2577821E-2,-5.959458E-1,-1.0242222E-1,-5.61877E-1,2.7226232E-2,8.4866464E-2,-1.2653087E-1],"categories":[],"categories_nodes":[],"categories_segments":[],"categories_sizes":[],"default_left":[1,1,1,1,1,1,1,1,1],"id":41,"left_children":[-1,-1,-1,-1,-1,-1,-1,-1,-1],"loss_changes":[8.000068E-1,9.057021E-2,7.1679485E-1,0E0,0E0,0E0,7.396429E-1,0E0,0E0],"parents":[2147483647,0,0,1,1,2,2,6,6],"right_children":[-1,-1,-1,-1,-1,-1,-1,-1,-1],"split_conditions":[-8.424304E-4,-5.7497766E-2,1.5093384E-3,-7.151349E-2,-1.2290667E-2,-6.742524E-2,3.2671478E-3,1.0183975E-2,-1.5183704E-2],"split_indices":[4,2147483647,2147483647,2147483647,2147483647,2147483647,2147483647,2147483647,2147483647],"split_type":[0,0,0,0,0,0,0,0,0],"sum_hessian":[8.480976E1,2.445586E0,8.2364174E1,1.4226179E0,1.022968E0,1.1191173E0,8.1245056E1,5.9418415E1,2.182664E1],"tree_param":{"num_deleted":"8","num_feature":"5","num_nodes":"9","size_leaf_vector":"1"}},{"base_weights":[-6.1908504E-3,-4.7882617E-1,1.3416243E-2,-5.957373E-1,-1.0203785E-1,-5.6165296E-1,2.8071323E-2,8.573014E-2,-1.2580022E-1],"categories":[],"categories_nodes":[],"categories_segments":[],"categories_sizes":[],"default_left":[1,1,1,1,1,1,1,1,1],"id":42,"left_children":[-1,-1,-1,-1,-1,-1,-1,-1,-1],"loss_changes":[8.012408E-1,9.090543E-2,7.180022E-1,0E0,0E0,0E0,7.4012595E-1,0E0,0E0],"parents":[2147483647,0,0,1,1,2,2,6,6],"right_children":[-1,-1,-1,-1,-1,-1,-1,-1,-1],"split_conditions":[-7.4290205E-4,-5.745914E-2,1.609949E-3,-7.148847E-2,-1.2244541E-2,-6.7398354E-2,3.3685588E-3,1.0287617E-2,-1.50960265E-2],"split_indices":[4,2147483647,2147483647,2147483647,2147483647,2147483647,2147483647,2147483647,2147483647],"split_type":[0,0,0,0,0,0,0,0,0],"sum_hessian":[8.476847E1,2.4436014E0,8.232487E1,1.4214549E0,1.0221465E0,1.1182848E0,8.120658E1,5.9393475E1,2.1813108E1],"tree_param":{"num_deleted":"8","num_feature":"5","num_nodes":"9","size_leaf_vector":"1"}},{"base_weights":[-5.459069E-3,-4.785422E-1,1.4155977E-2,-5.9555334E-1,-1.0169886E-1,-5.6145537E-1,2.881694E-2,8.649212E-2,-1.251555E-1],"categories":[],"categories_nodes":[],"categories_segments":[],"categories_sizes":[],"default_left":[1,1,1,1,1,1,1,1,1],"id":43,"left_children":[-1,-1,-1,-1,-1,-1,-1,-1,-1],"loss_changes":[8.02329E-1,9.120095E-2,7.190669E-1,0E0,0E0,0E0,7.405501E-1,0E0,0E0],"parents":[2147483647,0,0,1,1,2,2,6,6],"right_children":[-1,-1,-1,-1,-1,-1,-1,-1,-1],"split_conditions":[-6.550882E-4,-5.7425063E-2,1.6987172E-3,-7.14664E-2,-1.2203863E-2,-6.737464E-2,3.4580329E-3,1.0379055E-2,-1.5018659E-2],"split_indices":[4,2147483647,2147483647,2147483647,2147483647,2147483647,2147483647,2147483647,2147483647],"split_type":[0,0,0,0,0,0,0,0,0],"sum_hessian":[8.473207E1,2.4418526E0,8.2290215E1,1.4204301E0,1.0214224E0,1.1175512E0,8.117267E1,5.9371487E1,2.180118E1],"tree_param":{"num_deleted":"8","num_feature":"5","num_nodes":"9","size_leaf_vector":"1"}},{"base_weights":[-4.813516E-3,-4.782917E-1,1.4808539E-2,-5.9539115E-1,-1.01399906E-1,-5.612811E-1,2.9474692E-2,8.716427E-2,-1.24586694E-1],"categories":[],"categories_nodes":[],"categories_segments":[],"categories_sizes":[],"default_left":[1,1,1,1,1,1,1,1,1],"id":44,"left_children":[-1,-1,-1,-1,-1,-1,-1,-1,-1],"loss_changes":[8.032883E-1,9.146154E-2,7.20006E-1,0E0,0E0,0E0,7.409227E-1,0E0,0E0],"parents":[2147483647,0,0,1,1,2,2,6,6],"right_children":[-1,-1,-1,-1,-1,-1,-1,-1,-1],"split_conditions":[-5.776219E-4,-5.7395E-2,1.7770247E-3,-7.144694E-2,-1.2167988E-2,-6.7353725E-2,3.536963E-3,1.0459712E-2,-1.4950403E-2],"split_indices":[4,2147483647,2147483647,2147483647,2147483647,2147483647,2147483647,2147483647,2147483647],"split_type":[0,0,0,0,0,0,0,0,0],"sum_hessian":[8.4699974E1,2.4403112E0,8.225967E1,1.4195269E0,1.0207843E0,1.1169045E0,8.114276E1,5.9352097E1,2.1790665E1],"tree_param":{"num_deleted":"8","num_feature":"5","num_nodes":"9","size_leaf_vector":"1"}},{"base_weights":[-4.2441306E-3,-4.7807086E-1,1.538411E-2,-5.9524816E-1,-1.0113637E-1,-5.611274E-1,3.0054837E-2,8.775709E-2,-1.2408497E-1],"categories":[],"categories_nodes":[],"categories_segments":[],"categories_sizes":[],"default_left":[1,1,1,1,1,1,1,1,1],"id":45,"left_children":[-1,-1,-1,-1,-1,-1,-1,-1,-1],"loss_changes":[8.041343E-1,9.169102E-2,7.20834E-1,0E0,0E0,0E0,7.4125016E-1,0E0,0E0],"parents":[2147483647,0,0,1,1,2,2,6,6],"right_children":[-1,-1,-1,-1,-1,-1,-1,-1,-1],"split_conditions":[-5.0929567E-4,-5.7368502E-2,1.8460931E-3,-7.142978E-2,-1.2136364E-2,-6.733529E-2,3.6065804E-3,1.053085E-2,-1.4890197E-2],"split_indices":[4,2147483647,2147483647,2147483647,2147483647,2147483647,2147483647,2147483647,2147483647],"split_type":[0,0,0,0,0,0,0,0,0],"sum_hessian":[8.4671684E1,2.4389532E0,8.2232735E1,1.4187313E0,1.020222E0,1.1163347E0,8.11164E1,5.9335E1,2.1781397E1],"tree_param":{"num_deleted":"8","num_feature":"5","num_nodes":"9","size_leaf_vector":"1"}},{"base_weights":[-3.7419687E-3,-4.7787607E-1,1.5891721E-2,-5.951221E-1,-1.0090402E-1,-5.60992E-1,3.0566482E-2,8.82799E-2,-1.2364248E-1],"categories":[],"categories_nodes":[],"categories_segments":[],"categories_sizes":[],"default_left":[1,1,1,1,1,1,1,1,1],"id":46,"left_children":[-1,-1,-1,-1,-1,-1,-1,-1,-1],"loss_changes":[8.0488E-1,9.1893375E-2,7.215642E-1,0E0,0E0,0E0,7.415383E-1,0E0,0E0],"parents":[2147483647,0,0,1,1,2,2,6,6],"right_children":[-1,-1,-1,-1,-1,-1,-1,-1,-1],"split_conditions":[-4.4903622E-4,-5.7345126E-2,1.9070065E-3,-7.141465E-2,-1.21084815E-2,-6.7319036E-2,3.6679776E-3,1.0593588E-2,-1.4837097E-2],"split_indices":[4,2147483647,2147483647,2147483647,2147483647,2147483647,2147483647,2147483647,2147483647],"split_type":[0,0,0,0,0,0,0,0,0],"sum_hessian":[8.464675E1,2.4377565E0,8.220899E1,1.41803E0,1.0197264E0,1.1158324E0,8.109316E1,5.931993E1,2.177323E1],"tree_param":{"num_deleted":"8","num_feature":"5","num_nodes":"9","size_leaf_vector":"1"}},{"base_weights":[-3.2990978E-3,-4.7770426E-1,1.6339393E-2,-5.950109E-1,-1.00699104E-1,-5.608726E-1,3.1017713E-2,8.874098E-2,-1.2325224E-1],"categories":[],"categories_nodes":[],"categories_segments":[],"categories_sizes":[],"default_left":[1,1,1,1,1,1,1,1,1],"id":47,"left_children":[-1,-1,-1,-1,-1,-1,-1,-1,-1],"loss_changes":[8.055373E-1,9.207177E-2,7.222081E-1,0E0,0E0,0E0,7.4179196E-1,0E0,0E0],"parents":[2147483647,0,0,1,1,2,2,6,6],"right_children":[-1,-1,-1,-1,-1,-1,-1,-1,-1],"split_conditions":[-3.9589172E-4,-5.732451E-2,1.9607272E-3,-7.1401305E-2,-1.2083893E-2,-6.7304716E-2,3.7221254E-3,1.0648917E-2,-1.4790269E-2],"split_indices":[4,2147483647,2147483647,2147483647,2147483647,2147483647,2147483647,2147483647,2147483647],"split_type":[0,0,0,0,0,0,0,0,0],"sum_hessian":[8.462477E1,2.4367015E0,8.2188065E1,1.4174118E0,1.0192897E0,1.1153898E0,8.107268E1,5.9306644E1,2.1766031E1],"tree_param":{"num_deleted":"8","num_feature":"5","num_nodes":"9","size_leaf_vector":"1"}},{"base_weights":[-2.9085819E-3,-4.7755286E-1,1.6734146E-2,-5.949129E-1,-1.0051854E-1,-5.6076735E-1,3.1415604E-2,8.914755E-2,-1.22908115E-1],"categories":[],"categories_nodes":[],"categories_segments":[],"categories_sizes":[],"default_left":[1,1,1,1,1,1,1,1,1],"id":48,"left_children":[-1,-1,-1,-1,-1,-1,-1,-1,-1],"loss_changes":[8.061169E-1,9.222889E-2,7.227758E-1,0E0,0E0,0E0,7.420152E-1,0E0,0E0],"parents":[2147483647,0,0,1,1,2,2,6,6],"right_children":[-1,-1,-1,-1,-1,-1,-1,-1,-1],"split_conditions":[-3.490298E-4,-5.730634E-2,2.0080975E-3,-7.138955E-2,-1.2062225E-2,-6.729208E-2,3.7698725E-3,1.0697706E-2,-1.4748974E-2],"split_indices":[4,2147483647,2147483647,2147483647,2147483647,2147483647,2147483647,2147483647,2147483647],"split_type":[0,0,0,0,0,0,0,0,0],"sum_hessian":[8.460539E1,2.4357722E0,8.2169624E1,1.4168674E0,1.0189049E0,1.1149999E0,8.105462E1,5.9294933E1,2.1759687E1],"tree_param":{"num_deleted":"8","num_feature":"5","num_nodes":"9","size_leaf_vector":"1"}},{"base_weights":[-2.5641597E-3,-4.774193E-1,1.7082302E-2,-5.948264E-1,-1.0035928E-1,-5.606745E-1,3.1766523E-2,8.9506105E-2,-1.22604586E-1],"categories":[],"categories_nodes":[],"categories_segments":[],"categories_sizes":[],"default_left":[1,1,1,1,1,1,1,1,1],"id":49,"left_children":[-1,-1,-1,-1,-1,-1,-1,-1,-1],"loss_changes":[8.0662787E-1,9.236735E-2,7.2327626E-1,0E0,0E0,0E0,7.422114E-1,0E0,0E0],"parents":[2147483647,0,0,1,1,2,2,6,6],"right_children":[-1,-1,-1,-1,-1,-1,-1,-1,-1],"split_conditions":[-3.0769914E-4,-5.7290312E-2,2.0498761E-3,-7.137917E-2,-1.2043114E-2,-6.728094E-2,3.8119827E-3,1.0740733E-2,-1.471255E-2],"split_indices":[4,2147483647,2147483647,2147483647,2147483647,2147483647,2147483647,2147483647,2147483647],"split_type":[0,0,0,0,0,0,0,0,0],"sum_hessian":[8.458831E1,2.434953E0,8.215336E1,1.4163873E0,1.0185657E0,1.114656E0,8.1038704E1,5.9284607E1,2.1754093E1],"tree_param":{"num_deleted":"8","num_feature":"5","num_nodes":"9","size_leaf_vector":"1"}}]},"name":"gbtree"},"name":"dart","weight_drop":[1E0,1E0,1E0,1E0,1E0,1E0,1E0,1E0,1E0,1E0,1E0,1E0,1E0,1E0,1E0,1E0,1E0,1E0,1E0,1E0,1E0,1E0,1E0,1E0,1E0,1E0,1E0,1E0,1E0,1E0,1E0,1E0,1E0,1E0,1E0,1E0,1E0,1E0,1E0,1E0,1E0,1E0,1E0,1E0,1E0,1E0,1E0,1E0,1E0,1E0]},"learner_model_param":{"base_score":"1.6772303E-1","boost_from_average":"1","num_class":"0","num_feature":"5","num_target":"1"},"objective":{"name":"binary:logistic","reg_loss_param":{"scale_pos_weight":"0.280000001"}}},"version":[2,0,3]}